digraph Tree {
node [shape=box, style="filled, rounded", color="black", fontname=helvetica] ;
edge [fontname=helvetica] ;
0 [label="HRV_SD1SD2 <= 0.76\nentropy = 1.0\nsamples = 654\nvalue = [327, 327]\nclass = normal", fillcolor="#ffffff"] ;
1 [label="HRV_CVNN <= 0.57\nentropy = 0.85\nsamples = 154\nvalue = [42, 112]\nclass = hypo", fillcolor="#83c2ef"] ;
0 -> 1 [labeldistance=2.5, labelangle=45, headlabel="True"] ;
2 [label="HRV_GI <= 51.71\nentropy = 0.76\nsamples = 27\nvalue = [21, 6]\nclass = normal", fillcolor="#eca572"] ;
1 -> 2 ;
3 [label="entropy = 0.0\nsamples = 21\nvalue = [21, 0]\nclass = normal", fillcolor="#e58139"] ;
2 -> 3 ;
4 [label="entropy = 0.0\nsamples = 6\nvalue = [0, 6]\nclass = hypo", fillcolor="#399de5"] ;
2 -> 4 ;
5 [label="HRV_CVSD <= 1.54\nentropy = 0.65\nsamples = 127\nvalue = [21, 106]\nclass = hypo", fillcolor="#60b0ea"] ;
1 -> 5 ;
6 [label="HRV_pNN50 <= 56.51\nentropy = 0.52\nsamples = 120\nvalue = [14, 106]\nclass = hypo", fillcolor="#53aae8"] ;
5 -> 6 ;
7 [label="entropy = 0.0\nsamples = 45\nvalue = [0, 45]\nclass = hypo", fillcolor="#399de5"] ;
6 -> 7 ;
8 [label="HRV_SD1SD2 <= 0.74\nentropy = 0.69\nsamples = 75\nvalue = [14, 61]\nclass = hypo", fillcolor="#66b3eb"] ;
6 -> 8 ;
9 [label="S_mean <= 13520.98\nentropy = 0.8\nsamples = 57\nvalue = [14, 43]\nclass = hypo", fillcolor="#79bded"] ;
8 -> 9 ;
10 [label="S_std <= 9161.15\nentropy = 0.29\nsamples = 39\nvalue = [2, 37]\nclass = hypo", fillcolor="#44a2e6"] ;
9 -> 10 ;
11 [label="HRV_SI <= 49.32\nentropy = 0.18\nsamples = 38\nvalue = [1, 37]\nclass = hypo", fillcolor="#3ea0e6"] ;
10 -> 11 ;
12 [label="entropy = 0.65\nsamples = 6\nvalue = [1, 5]\nclass = hypo", fillcolor="#61b1ea"] ;
11 -> 12 ;
13 [label="entropy = 0.0\nsamples = 32\nvalue = [0, 32]\nclass = hypo", fillcolor="#399de5"] ;
11 -> 13 ;
14 [label="entropy = 0.0\nsamples = 1\nvalue = [1, 0]\nclass = normal", fillcolor="#e58139"] ;
10 -> 14 ;
15 [label="HRV_PI <= 54.37\nentropy = 0.92\nsamples = 18\nvalue = [12, 6]\nclass = normal", fillcolor="#f2c09c"] ;
9 -> 15 ;
16 [label="entropy = 0.0\nsamples = 11\nvalue = [11, 0]\nclass = normal", fillcolor="#e58139"] ;
15 -> 16 ;
17 [label="entropy = 0.59\nsamples = 7\nvalue = [1, 6]\nclass = hypo", fillcolor="#5aade9"] ;
15 -> 17 ;
18 [label="entropy = 0.0\nsamples = 18\nvalue = [0, 18]\nclass = hypo", fillcolor="#399de5"] ;
8 -> 18 ;
19 [label="entropy = 0.0\nsamples = 7\nvalue = [7, 0]\nclass = normal", fillcolor="#e58139"] ;
5 -> 19 ;
20 [label="HRV_PSS <= 0.84\nentropy = 0.99\nsamples = 500\nvalue = [285, 215]\nclass = normal", fillcolor="#f9e0ce"] ;
0 -> 20 [labeldistance=2.5, labelangle=-45, headlabel="False"] ;
21 [label="P_mean <= 8776.84\nentropy = 0.37\nsamples = 71\nvalue = [66, 5]\nclass = normal", fillcolor="#e78b48"] ;
20 -> 21 ;
22 [label="entropy = 0.0\nsamples = 5\nvalue = [0, 5]\nclass = hypo", fillcolor="#399de5"] ;
21 -> 22 ;
23 [label="entropy = 0.0\nsamples = 66\nvalue = [66, 0]\nclass = normal", fillcolor="#e58139"] ;
21 -> 23 ;
24 [label="QT_mean <= 68.69\nentropy = 1.0\nsamples = 429\nvalue = [219, 210]\nclass = normal", fillcolor="#fefaf7"] ;
20 -> 24 ;
25 [label="HRV_MCVNN <= 0.43\nentropy = 0.8\nsamples = 112\nvalue = [27, 85]\nclass = hypo", fillcolor="#78bced"] ;
24 -> 25 ;
26 [label="T_mean <= 15583.27\nentropy = 0.73\nsamples = 107\nvalue = [22, 85]\nclass = hypo", fillcolor="#6cb6ec"] ;
25 -> 26 ;
27 [label="HRV_CSI_Modified <= 1315.42\nentropy = 0.88\nsamples = 74\nvalue = [22, 52]\nclass = hypo", fillcolor="#8dc6f0"] ;
26 -> 27 ;
28 [label="entropy = 0.0\nsamples = 15\nvalue = [15, 0]\nclass = normal", fillcolor="#e58139"] ;
27 -> 28 ;
29 [label="HRV_RMSSD <= 401.16\nentropy = 0.53\nsamples = 59\nvalue = [7, 52]\nclass = hypo", fillcolor="#54aae8"] ;
27 -> 29 ;
30 [label="entropy = 0.0\nsamples = 3\nvalue = [3, 0]\nclass = normal", fillcolor="#e58139"] ;
29 -> 30 ;
31 [label="T_mean <= 14018.71\nentropy = 0.37\nsamples = 56\nvalue = [4, 52]\nclass = hypo", fillcolor="#48a5e7"] ;
29 -> 31 ;
32 [label="entropy = 0.0\nsamples = 3\nvalue = [3, 0]\nclass = normal", fillcolor="#e58139"] ;
31 -> 32 ;
33 [label="HRV_LF <= 0.02\nentropy = 0.14\nsamples = 53\nvalue = [1, 52]\nclass = hypo", fillcolor="#3d9fe6"] ;
31 -> 33 ;
34 [label="entropy = 0.0\nsamples = 1\nvalue = [1, 0]\nclass = normal", fillcolor="#e58139"] ;
33 -> 34 ;
35 [label="entropy = 0.0\nsamples = 52\nvalue = [0, 52]\nclass = hypo", fillcolor="#399de5"] ;
33 -> 35 ;
36 [label="entropy = 0.0\nsamples = 33\nvalue = [0, 33]\nclass = hypo", fillcolor="#399de5"] ;
26 -> 36 ;
37 [label="entropy = 0.0\nsamples = 5\nvalue = [5, 0]\nclass = normal", fillcolor="#e58139"] ;
25 -> 37 ;
38 [label="HRV_CVNN <= 0.44\nentropy = 0.97\nsamples = 317\nvalue = [192, 125]\nclass = normal", fillcolor="#f6d3ba"] ;
24 -> 38 ;
39 [label="entropy = 0.0\nsamples = 45\nvalue = [45, 0]\nclass = normal", fillcolor="#e58139"] ;
38 -> 39 ;
40 [label="HRV_SDSD <= 5390.43\nentropy = 1.0\nsamples = 272\nvalue = [147, 125]\nclass = normal", fillcolor="#fbece1"] ;
38 -> 40 ;
41 [label="HRV_Cd <= 0.5\nentropy = 0.98\nsamples = 241\nvalue = [142, 99]\nclass = normal", fillcolor="#f7d9c3"] ;
40 -> 41 ;
42 [label="HRV_CVNN <= 0.44\nentropy = 0.52\nsamples = 93\nvalue = [82, 11]\nclass = normal", fillcolor="#e89254"] ;
41 -> 42 ;
43 [label="entropy = 0.0\nsamples = 7\nvalue = [0, 7]\nclass = hypo", fillcolor="#399de5"] ;
42 -> 43 ;
44 [label="HRV_IALS <= 0.69\nentropy = 0.27\nsamples = 86\nvalue = [82, 4]\nclass = normal", fillcolor="#e68743"] ;
42 -> 44 ;
45 [label="entropy = 0.0\nsamples = 61\nvalue = [61, 0]\nclass = normal", fillcolor="#e58139"] ;
44 -> 45 ;
46 [label="HRV_pNN50 <= 88.44\nentropy = 0.63\nsamples = 25\nvalue = [21, 4]\nclass = normal", fillcolor="#ea995f"] ;
44 -> 46 ;
47 [label="entropy = 0.99\nsamples = 7\nvalue = [3, 4]\nclass = hypo", fillcolor="#cee6f8"] ;
46 -> 47 ;
48 [label="entropy = 0.0\nsamples = 18\nvalue = [18, 0]\nclass = normal", fillcolor="#e58139"] ;
46 -> 48 ;
49 [label="Q_mean <= 11381.78\nentropy = 0.97\nsamples = 148\nvalue = [60, 88]\nclass = hypo", fillcolor="#c0e0f7"] ;
41 -> 49 ;
50 [label="entropy = 0.0\nsamples = 14\nvalue = [0, 14]\nclass = hypo", fillcolor="#399de5"] ;
49 -> 50 ;
51 [label="S_std <= 8017.24\nentropy = 0.99\nsamples = 134\nvalue = [60, 74]\nclass = hypo", fillcolor="#daecfa"] ;
49 -> 51 ;
52 [label="entropy = 0.0\nsamples = 16\nvalue = [16, 0]\nclass = normal", fillcolor="#e58139"] ;
51 -> 52 ;
53 [label="HRV_PSS <= 0.89\nentropy = 0.95\nsamples = 118\nvalue = [44, 74]\nclass = hypo", fillcolor="#afd7f4"] ;
51 -> 53 ;
54 [label="Q_std <= 9307.47\nentropy = 0.7\nsamples = 58\nvalue = [11, 47]\nclass = hypo", fillcolor="#67b4eb"] ;
53 -> 54 ;
55 [label="HRV_PSS <= 0.85\nentropy = 0.6\nsamples = 55\nvalue = [8, 47]\nclass = hypo", fillcolor="#5baee9"] ;
54 -> 55 ;
56 [label="entropy = 0.0\nsamples = 2\nvalue = [2, 0]\nclass = normal", fillcolor="#e58139"] ;
55 -> 56 ;
57 [label="HRV_pNN50 <= 61.01\nentropy = 0.51\nsamples = 53\nvalue = [6, 47]\nclass = hypo", fillcolor="#52aae8"] ;
55 -> 57 ;
58 [label="entropy = 0.0\nsamples = 2\nvalue = [2, 0]\nclass = normal", fillcolor="#e58139"] ;
57 -> 58 ;
59 [label="Q_mean <= 15739.58\nentropy = 0.4\nsamples = 51\nvalue = [4, 47]\nclass = hypo", fillcolor="#4aa5e7"] ;
57 -> 59 ;
60 [label="HRV_C2a <= 0.41\nentropy = 0.16\nsamples = 43\nvalue = [1, 42]\nclass = hypo", fillcolor="#3e9fe6"] ;
59 -> 60 ;
61 [label="entropy = 0.0\nsamples = 1\nvalue = [1, 0]\nclass = normal", fillcolor="#e58139"] ;
60 -> 61 ;
62 [label="entropy = 0.0\nsamples = 42\nvalue = [0, 42]\nclass = hypo", fillcolor="#399de5"] ;
60 -> 62 ;
63 [label="entropy = 0.95\nsamples = 8\nvalue = [3, 5]\nclass = hypo", fillcolor="#b0d8f5"] ;
59 -> 63 ;
64 [label="entropy = 0.0\nsamples = 3\nvalue = [3, 0]\nclass = normal", fillcolor="#e58139"] ;
54 -> 64 ;
65 [label="HRV_MedianNN <= 818.0\nentropy = 0.99\nsamples = 60\nvalue = [33, 27]\nclass = normal", fillcolor="#fae8db"] ;
53 -> 65 ;
66 [label="entropy = 0.0\nsamples = 14\nvalue = [14, 0]\nclass = normal", fillcolor="#e58139"] ;
65 -> 66 ;
67 [label="T_mean <= 15197.0\nentropy = 0.98\nsamples = 46\nvalue = [19, 27]\nclass = hypo", fillcolor="#c4e2f7"] ;
65 -> 67 ;
68 [label="entropy = 0.0\nsamples = 9\nvalue = [9, 0]\nclass = normal", fillcolor="#e58139"] ;
67 -> 68 ;
69 [label="HRV_MedianNN <= 970.0\nentropy = 0.84\nsamples = 37\nvalue = [10, 27]\nclass = hypo", fillcolor="#82c1ef"] ;
67 -> 69 ;
70 [label="HRV_SD2 <= 578.05\nentropy = 0.36\nsamples = 29\nvalue = [2, 27]\nclass = hypo", fillcolor="#48a4e7"] ;
69 -> 70 ;
71 [label="entropy = 0.0\nsamples = 1\nvalue = [1, 0]\nclass = normal", fillcolor="#e58139"] ;
70 -> 71 ;
72 [label="HRV_SD2d <= 443.88\nentropy = 0.22\nsamples = 28\nvalue = [1, 27]\nclass = hypo", fillcolor="#40a1e6"] ;
70 -> 72 ;
73 [label="entropy = 0.0\nsamples = 1\nvalue = [1, 0]\nclass = normal", fillcolor="#e58139"] ;
72 -> 73 ;
74 [label="entropy = 0.0\nsamples = 27\nvalue = [0, 27]\nclass = hypo", fillcolor="#399de5"] ;
72 -> 74 ;
75 [label="entropy = 0.0\nsamples = 8\nvalue = [8, 0]\nclass = normal", fillcolor="#e58139"] ;
69 -> 75 ;
76 [label="HRV_HTI <= 1.81\nentropy = 0.64\nsamples = 31\nvalue = [5, 26]\nclass = hypo", fillcolor="#5fb0ea"] ;
40 -> 76 ;
77 [label="HRV_MeanNN <= 3485.25\nentropy = 0.23\nsamples = 27\nvalue = [1, 26]\nclass = hypo", fillcolor="#41a1e6"] ;
76 -> 77 ;
78 [label="entropy = 0.0\nsamples = 1\nvalue = [1, 0]\nclass = normal", fillcolor="#e58139"] ;
77 -> 78 ;
79 [label="entropy = 0.0\nsamples = 26\nvalue = [0, 26]\nclass = hypo", fillcolor="#399de5"] ;
77 -> 79 ;
80 [label="entropy = 0.0\nsamples = 4\nvalue = [4, 0]\nclass = normal", fillcolor="#e58139"] ;
76 -> 80 ;
}